Language model created by QuickLM on Wed Jul 23 10:56:10 EDT 2014
Copyright (c) 1996-2010 Carnegie Mellon University and Alexander I. Rudnicky

The model is in standard ARPA format, designed by Doug Paul while he was at MITRE.

The code that was used to produce this language model is available in Open Source.
Please visit http://www.speech.cs.cmu.edu/tools/ for more information

The (fixed) discount mass is 0.5. The backoffs are computed using the ratio method.
This model based on a corpus of 24 sentences and 34 words

\data\
ngram 1=34
ngram 2=69
ngram 3=74

\1-grams:
-1.1139 </s> -0.3010
-1.1139 <s> -0.2430
-1.6491 A -0.2752
-2.1931 ACTION -0.2825
-1.8921 AN -0.2912
-2.0170 BELOW -0.2854
-1.4942 BLOCK -0.2414
-2.1931 BLUE -0.2509
-2.4942 FINAL -0.2982
-2.4942 FINISHED -0.2663
-2.1931 GAME -0.2825
-2.4942 INITIAL -0.2982
-1.3802 IS -0.2556
-1.8921 LOCATION -0.2462
-2.1931 MOVE -0.2752
-1.8921 NAME -0.2954
-2.4942 NO -0.2663
-1.8921 NOT -0.2926
-1.7952 OBJECT -0.2462
-1.8921 OF -0.2693
-2.0170 ON -0.2648
-2.4942 PLACE-BLOCK -0.2663
-2.1931 RED -0.2509
-2.4942 SMALLER -0.2996
-2.4942 STACK-BLOCK -0.2663
-2.1931 STATE -0.2663
-2.4942 THAN -0.2752
-1.2389 THE -0.2617
-1.8921 THIS -0.2825
-2.4942 TIC-TAC-TOE -0.2663
-2.4942 TOWERS-OF-HANOI -0.2663
-2.4942 TURN -0.2663
-2.4942 YES -0.2663
-2.4942 YOUR -0.2996

\2-grams:
-1.0792 <s> A 0.0000
-1.6812 <s> AN -0.1761
-1.6812 <s> FINISHED 0.0000
-1.3802 <s> MOVE 0.0000
-1.6812 <s> NO 0.0000
-0.7270 <s> THE -0.0872
-1.0792 <s> THIS 0.0000
-1.6812 <s> YES 0.0000
-1.6812 <s> YOUR 0.0000
-0.6690 A BLOCK -0.1761
-1.1461 A BLUE -0.1761
-0.8451 A LOCATION -0.0969
-1.1461 A RED -0.1761
-0.3010 ACTION IS -0.2663
-0.6021 AN ACTION 0.0000
-0.6021 AN OBJECT -0.0792
-0.4771 BELOW A -0.1963
-0.7782 BELOW AN -0.1761
-0.6021 BLOCK </s> -0.3010
-0.8239 BLOCK IS -0.2083
-1.0000 BLOCK ON -0.1249
-0.6021 BLUE </s> -0.3010
-0.6021 BLUE BLOCK -0.1761
-0.3010 FINAL STATE 0.0000
-0.3010 FINISHED </s> -0.3010
-0.3010 GAME IS -0.2663
-0.3010 INITIAL STATE 0.0000
-1.4150 IS BLUE -0.1761
-0.8129 IS NOT 0.0000
-1.4150 IS PLACE-BLOCK 0.0000
-1.4150 IS RED -0.1761
-1.4150 IS SMALLER 0.0000
-1.4150 IS STACK-BLOCK 0.0000
-1.1139 IS THE -0.2762
-1.4150 IS TIC-TAC-TOE 0.0000
-1.4150 IS TOWERS-OF-HANOI 0.0000
-0.4260 LOCATION </s> -0.3010
-0.9031 LOCATION IS -0.2285
-0.3010 MOVE THE -0.2361
-0.3010 NAME OF 0.0000
-0.3010 NO </s> -0.3010
-0.4260 NOT BELOW 0.0000
-0.9031 NOT ON -0.2218
-0.3979 OBJECT </s> -0.3010
-1.0000 OBJECT IS -0.2285
-0.6021 OF AN -0.1761
-0.6021 OF THE -0.2762
-0.7782 ON A -0.2341
-0.4771 ON THE -0.2361
-0.3010 PLACE-BLOCK </s> -0.3010
-0.6021 RED </s> -0.3010
-0.6021 RED BLOCK -0.1761
-0.3010 SMALLER THAN 0.0000
-0.3010 STACK-BLOCK </s> -0.3010
-0.3010 STATE </s> -0.3010
-0.3010 THAN THE -0.2632
-0.8573 THE BLOCK -0.1761
-1.5563 THE FINAL 0.0000
-1.2553 THE GAME 0.0000
-1.5563 THE INITIAL 0.0000
-1.2553 THE LOCATION 0.0000
-0.9542 THE NAME 0.0000
-1.0792 THE OBJECT 0.0000
-0.3010 THIS IS -0.2285
-0.3010 TIC-TAC-TOE </s> -0.3010
-0.3010 TOWERS-OF-HANOI </s> -0.3010
-0.3010 TURN </s> -0.3010
-0.3010 YES </s> -0.3010
-0.3010 YOUR TURN 0.0000

\3-grams:
-0.9031 <s> A BLOCK
-0.9031 <s> A BLUE
-0.9031 <s> A LOCATION
-0.9031 <s> A RED
-0.3010 <s> AN OBJECT
-0.3010 <s> FINISHED </s>
-0.3010 <s> MOVE THE
-0.3010 <s> NO </s>
-0.7782 <s> THE BLOCK
-1.2553 <s> THE LOCATION
-0.6532 <s> THE NAME
-1.2553 <s> THE OBJECT
-0.3010 <s> THIS IS
-0.3010 <s> YES </s>
-0.3010 <s> YOUR TURN
-0.3010 A BLOCK </s>
-0.3010 A BLUE BLOCK
-0.3010 A LOCATION </s>
-0.3010 A RED BLOCK
-0.6021 ACTION IS PLACE-BLOCK
-0.6021 ACTION IS STACK-BLOCK
-0.3010 AN ACTION IS
-0.3010 AN OBJECT </s>
-0.3010 BELOW A BLOCK
-0.3010 BELOW AN OBJECT
-0.4771 BLOCK IS NOT
-0.7782 BLOCK IS SMALLER
-0.3010 BLOCK ON THE
-0.3010 BLUE BLOCK </s>
-0.3010 FINAL STATE </s>
-0.6021 GAME IS TIC-TAC-TOE
-0.6021 GAME IS TOWERS-OF-HANOI
-0.3010 INITIAL STATE </s>
-0.3010 IS BLUE </s>
-0.4260 IS NOT BELOW
-0.9031 IS NOT ON
-0.3010 IS PLACE-BLOCK </s>
-0.3010 IS RED </s>
-0.3010 IS SMALLER THAN
-0.3010 IS STACK-BLOCK </s>
-0.6021 IS THE FINAL
-0.6021 IS THE INITIAL
-0.3010 IS TIC-TAC-TOE </s>
-0.3010 IS TOWERS-OF-HANOI </s>
-0.3010 LOCATION IS NOT
-0.3010 MOVE THE BLOCK
-0.6021 NAME OF AN
-0.6021 NAME OF THE
-0.4771 NOT BELOW A
-0.7782 NOT BELOW AN
-0.3010 NOT ON A
-0.3010 OBJECT IS NOT
-0.3010 OF AN ACTION
-0.3010 OF THE GAME
-0.3010 ON A LOCATION
-0.6021 ON THE LOCATION
-0.6021 ON THE OBJECT
-0.3010 RED BLOCK </s>
-0.3010 SMALLER THAN THE
-0.3010 THAN THE OBJECT
-0.5229 THE BLOCK IS
-0.6990 THE BLOCK ON
-0.3010 THE FINAL STATE
-0.3010 THE GAME IS
-0.3010 THE INITIAL STATE
-0.6021 THE LOCATION </s>
-0.6021 THE LOCATION IS
-0.3010 THE NAME OF
-0.4771 THE OBJECT </s>
-0.7782 THE OBJECT IS
-0.9031 THIS IS BLUE
-0.9031 THIS IS RED
-0.6021 THIS IS THE
-0.3010 YOUR TURN </s>

\end\
